FANN_FLO_2.1
num_layers=3
learning_rate=0.700000
connection_rate=1.000000
network_type=0
learning_momentum=0.000000
training_algorithm=2
train_error_function=1
train_stop_function=0
cascade_output_change_fraction=0.010000
quickprop_decay=-0.000100
quickprop_mu=1.750000
rprop_increase_factor=1.200000
rprop_decrease_factor=0.500000
rprop_delta_min=0.000000
rprop_delta_max=50.000000
rprop_delta_zero=0.100000
cascade_output_stagnation_epochs=12
cascade_candidate_change_fraction=0.010000
cascade_candidate_stagnation_epochs=12
cascade_max_out_epochs=150
cascade_max_cand_epochs=150
cascade_num_candidate_groups=2
bit_fail_limit=3.49999994039535522461e-01
cascade_candidate_limit=1.00000000000000000000e+03
cascade_weight_multiplier=4.00000005960464477539e-01
cascade_activation_functions_count=10
cascade_activation_functions=3 5 7 8 10 11 14 15 16 17 
cascade_activation_steepnesses_count=4
cascade_activation_steepnesses=2.50000000000000000000e-01 5.00000000000000000000e-01 7.50000000000000000000e-01 1.00000000000000000000e+00 
layer_sizes=6 10 2 
scale_included=0
neurons (num_inputs, activation_function, activation_steepness)=(0, 0, 0.00000000000000000000e+00) (0, 0, 0.00000000000000000000e+00) (0, 0, 0.00000000000000000000e+00) (0, 0, 0.00000000000000000000e+00) (0, 0, 0.00000000000000000000e+00) (0, 0, 0.00000000000000000000e+00) (6, 5, 5.00000000000000000000e-01) (6, 5, 5.00000000000000000000e-01) (6, 5, 5.00000000000000000000e-01) (6, 5, 5.00000000000000000000e-01) (6, 5, 5.00000000000000000000e-01) (6, 5, 5.00000000000000000000e-01) (6, 5, 5.00000000000000000000e-01) (6, 5, 5.00000000000000000000e-01) (6, 5, 5.00000000000000000000e-01) (0, 5, 0.00000000000000000000e+00) (10, 5, 5.00000000000000000000e-01) (0, 5, 0.00000000000000000000e+00) 
connections (connected_to_neuron, weight)=(0, 3.63481044769287109375e-02) (1, -3.69053769111633300781e+00) (2, 3.17270488739013671875e+01) (3, 3.31975966691970825195e-01) (4, 6.45169006347656250000e+02) (5, 3.15959334373474121094e-01) (0, 4.18908625841140747070e-01) (1, -5.94290494918823242188e+00) (2, -8.88040733337402343750e+00) (3, -1.86721115112304687500e+01) (4, -1.50000000000000000000e+03) (5, 4.00445669889450073242e-01) (0, 4.95308607816696166992e-01) (1, -7.35092020034790039062e+00) (2, -1.11784076690673828125e+01) (3, -2.18206100463867187500e+01) (4, -1.50000000000000000000e+03) (5, 1.22192132472991943359e+00) (0, 4.61276561021804809570e-01) (1, 4.98394050598144531250e+01) (2, 1.18630859375000000000e+02) (3, 3.91718292236328125000e+02) (4, 1.50000000000000000000e+03) (5, 4.56098943948745727539e-01) (0, 1.56158760190010070801e-01) (1, 2.53156304359436035156e-01) (2, 1.63818323612213134766e+00) (3, 2.25915145874023437500e+00) (4, 6.44211853027343750000e+02) (5, 2.00519621372222900391e-01) (0, 8.30164253711700439453e-02) (1, -6.43438911437988281250e+00) (2, -6.10366284847259521484e-01) (3, -1.53881371021270751953e+00) (4, 1.50000000000000000000e+03) (5, -7.25773990154266357422e-01) (0, 6.23214662075042724609e-01) (1, 3.46051168441772460938e+00) (2, -1.55201644897460937500e+01) (3, -2.87478313446044921875e+01) (4, -1.50000000000000000000e+03) (5, 1.10846722126007080078e+00) (0, -2.49065516982227563858e-04) (1, 6.45090723037719726562e+00) (2, -3.67556154727935791016e-01) (3, 1.59858867526054382324e-01) (4, 1.12447778320312500000e+03) (5, -2.58483767509460449219e-01) (0, 7.68047273159027099609e-02) (1, -4.27608585357666015625e+00) (2, -9.89004802703857421875e+00) (3, -1.72148513793945312500e+00) (4, -1.50000000000000000000e+03) (5, 3.75901043415069580078e-01) (6, 2.05142110586166381836e-01) (7, -4.46827471256256103516e-01) (8, -8.97506594657897949219e-01) (9, 4.86368387937545776367e-01) (10, 1.85508728027343750000e-02) (11, 9.26660418510437011719e-01) (12, -2.10398688912391662598e-01) (13, 1.40535581111907958984e+00) (14, -2.77492940425872802734e-01) (15, 5.36092638969421386719e-01) 
